id,0,1,2,3,4,5,6,7,8,9,10,11,12,13,14,15,16,17,18,19,20,21,22,23
1,0.0009771102433710607,0.0035375203632723386,-0.0019931584957285386,-0.005550673084452527,0.007653904492690654,-0.001951796701984379,0.013174018803800642,0.00025485099347120573,0.0008744907819424683,-0.0027880068263343412,-0.008086281950839212,7.246426892188976e-05,0.019131451960482066,-0.008086557729859143,0.00961006295719148,-0.005457426907185609,0.004726110302299271,-0.01589203477072716,0.0018466840789269053,-0.00516125921341919,0.004648908332232473,-0.0058524358238808815,-0.006831066504024795,-0.0031653337082785116
2,0.0035298931799848405,0.004095004855810355,-0.0012006284543023594,-0.0021642574414829914,0.008160697246293468,-0.006243658997840307,0.01069301612810778,0.001021232222654752,-0.004826875164222112,0.0016659264601061293,-0.006956527253226848,0.0014633544960473168,0.014771420412558176,-0.012292728519431575,0.007693756430678298,-0.005553467629332766,0.0064976113042164345,-0.019515068847190196,0.0002647031485489436,-0.0035696436695026954,0.0010005693706893414,-0.006036981551817382,-0.0037636241618408577,0.00105932865839052
3,0.0031970487338295103,0.0042726817742422965,0.0009120242355690237,-0.005226253269620968,0.006433702189046459,-0.006876789673632733,0.010500396283422317,0.0002633586708626121,-0.006013278977834085,0.0030956720312729498,-0.005967796267780035,-0.0014601343991394388,0.014829556810979664,-0.009311981689458078,0.011014824363993429,-0.0038254979264531297,0.008009287659207122,-0.014808982965802454,0.0021308290483980927,-0.0032690370452238605,-0.0010710295600566003,-0.006169829264790328,-0.003766112678373402,-0.00023424473956659697
4,0.0023184859978421764,0.002484253230240519,-0.0018710249197466014,-0.004252489618766718,0.005134731837648518,-0.006281361491709612,0.008347784706513466,-0.00020561879075000993,-0.004395092328260592,0.0031484322337562926,-0.0060657563621560094,-0.0014670463313650938,0.014310042283177274,-0.00687242689241843,0.010942628254735572,-0.003478650301243614,0.008894618606052198,-0.013532173533003695,0.0017592403712038236,-0.001081861440514426,-0.0015549040344717269,-0.00603399957982564,-0.001537634540196806,0.0006612923738834732
5,0.001386204393633185,0.001766011457062114,-0.0027313770359572494,-0.004010030065042991,0.0047209876070733936,-0.006094399206799557,0.0075436781083397944,-0.00044290266975950026,-0.003746740752560614,0.0038096411646611986,-0.0059214251243485455,-0.001737927833264959,0.013666652590012948,-0.005768499613305198,0.011044301864664019,-0.003178176566190784,0.009139204987203869,-0.013008433292172474,0.001631503274888941,-0.00023807924083758022,-0.0017918169026380608,-0.005614377793449987,-0.0004697048416942395,0.0007144716397728465
6,0.0011217793681180214,0.001129475645982704,-0.0030743186675419327,-0.0038534852520629333,0.004612267496425085,-0.005585823897316309,0.0073241288574628855,-0.0006777549240400544,-0.003410269196306512,0.004014678000839448,-0.00592745740202972,-0.0017284349506499108,0.01321931550370369,-0.005833689911495587,0.010993540844075963,-0.0029456306716229247,0.009224027234392921,-0.012938816336887426,0.0016083434793438393,0.0003760920903273622,-0.0017668178577471523,-0.005320891716604888,-5.119023408353121e-05,0.0008219241098056278
7,0.000776183638854272,0.0009782515527591974,-0.0032087869740557444,-0.003657335993230925,0.004593477365390613,-0.005637645084478767,0.006801037620586421,-0.0007361682683975149,-0.00335946153196057,0.0039855649648836726,-0.005548888467949364,-0.0016175907507229906,0.013050550330539236,-0.00545944881098705,0.010848025316908207,-0.0029357577283764752,0.009411764612587331,-0.01270443458939348,0.0014974684005975925,0.0005291897727765515,-0.0018993328309395833,-0.0053047499380459145,0.00045794353722826626,0.0009595941486974283
8,0.0007203534806894874,0.00048239132616252286,-0.0032929680035418923,-0.0038567727637234513,0.004603266490743903,-0.005524547526314344,0.006883672612122365,-0.0008354450165722395,-0.0031807153586066745,0.00435402607382581,-0.005666671242043373,-0.0018406941368235852,0.012711436768158267,-0.005362707582688052,0.01089429092684618,-0.0025833873781099426,0.009256677796124645,-0.012300969291144064,0.0016166217866562538,0.0010633333926005073,-0.0020324911231268663,-0.005042340525060167,0.0007497182515581145,0.0008877526097072582
9,0.000443431896385846,0.0004743011977777708,-0.003467510896364506,-0.0037606982816589035,0.0047229098539094995,-0.005786435296535468,0.006722983183603473,-0.0008735624522602496,-0.003078732644694657,0.004768196354798835,-0.00554309287534417,-0.0019235262347911395,0.012358369837032796,-0.004726959808134449,0.010816898958509081,-0.002397480481844029,0.009197753623494743,-0.012217853292339828,0.0015182725141357411,0.0013120159439958684,-0.0022790293476616843,-0.005131483561509587,0.0012668120258301652,0.0007231356971676187
10,0.0003874339317520931,0.00014178102779050162,-0.003595257561557796,-0.003650567712509632,0.004528673534791237,-0.005791048930258982,0.006574996235167318,-0.0011471446759665496,-0.0028624925860328103,0.004843593621961381,-0.005540424228168831,-0.0018866843384432266,0.012275872456808409,-0.004611356582700666,0.010608548206216309,-0.002680970454074223,0.009026095475515708,-0.01213246932118187,0.0015062872074401432,0.0013543462437394388,-0.0020581026505379026,-0.0050302920804665,0.001373119525858056,0.000894151089163969
11,-7.846840074575038e-05,0.00019755842979609148,-0.003810507980278487,-0.003490340398967897,0.004725088386673848,-0.005907283628037156,0.006192845947837908,-0.0008757994481888021,-0.0027959396959853964,0.004774099232362094,-0.005288397336680925,-0.0016265445782767231,0.01199094771502348,-0.004559768885622189,0.010433942354869765,-0.002464934430202245,0.009001474089212121,-0.012198922574270379,0.0012120773912534851,0.001302286073506824,-0.0021035416462130817,-0.004907696961640946,0.0016760615668280376,0.00106163115983383
12,-0.0005110149972642941,0.0002913844513596316,-0.00396011562875144,-0.0032657584568497235,0.004694057062667345,-0.005600713355133995,0.006006190689924441,-0.0006815615121940152,-0.0026208779514849466,0.0049462603758203905,-0.005257762090327926,-0.0015620228179785557,0.0118562051741936,-0.004249794565461864,0.010336871169127617,-0.0021701804590617975,0.009097597499082902,-0.011929721678083137,0.0008465116508332688,0.0013330473344430542,-0.0021026463394513474,-0.004866610354064313,0.0015764563043236075,0.00103719868674812
13,-0.0004975885507666171,0.00045046570776449533,-0.003875845884531758,-0.002984605824416107,0.0046150701964971725,-0.005494078204901612,0.0058454005301295225,-0.0007940543184395639,-0.0024641483453641034,0.005078037835727543,-0.005180744844163571,-0.0015896716924719912,0.011551584168255165,-0.004177544384004086,0.010334936148552092,-0.0020710284824923997,0.009161676362000453,-0.011910703840578277,0.0009035948547658167,0.0013565822433409518,-0.0024169943825128816,-0.004744226214706523,0.0017750735205504607,0.001026547667573684
14,-0.0007068990129924407,0.000590740588684474,-0.0036053360035289772,-0.002733588162781121,0.004589076957700626,-0.005316048417366092,0.005743245529894129,-0.0009046989119982276,-0.0021966198823548987,0.005277860797376945,-0.00540480692766054,-0.001515888587016641,0.011351535562884891,-0.004156637461224761,0.010191176640591887,-0.002026856432606559,0.0092622056445566,-0.011664636403135765,0.0004659234723701933,0.0017045826355327413,-0.0023367697665498347,-0.004644940117046315,0.001968972538338569,0.0008448526596394427
15,-0.0008808223469004709,0.0005485327631207376,-0.0037187442879794445,-0.0022723975115882165,0.00437829514733051,-0.00525862309310224,0.005304277839319551,-0.0010606881253418397,-0.0018639516944049393,0.005329328700584676,-0.005158292195146142,-0.0011692428570958856,0.011410646160937685,-0.004044464983487303,0.010122596226568439,-0.0015983433836970582,0.009271392657360485,-0.011500660776445043,0.00040686365661161603,0.001570779890115226,-0.002350958397939265,-0.004105739430998957,0.0018804403289008173,0.00035013623377221526
16,-0.0006858265677198751,5.5557940533242567e-05,-0.003459449330099607,-0.0019358810414754663,0.004267539550267458,-0.004893424766241533,0.005050433300267444,-0.0009600026124663904,-0.0015841243031926517,0.005294652279521807,-0.005218127618064021,-0.001361513552007966,0.011178979160550417,-0.003773748389578023,0.009831234942493775,-0.0013798084667926726,0.009079306925293101,-0.011566946953924608,0.0002386814178143603,0.0016016625944492186,-0.002336830690005048,-0.003830106833248612,0.0021366325922478327,8.061889050176084e-05
17,-0.0006509991166606515,-0.0004996263343625048,-0.002968321407427214,-0.001846597894994732,0.004308299519635346,-0.005063221785707766,0.00504005149952578,-0.0007981590636434422,-0.001473768775081288,0.00556570522768956,-0.0052150562413609425,-0.0010767353661403913,0.011227130094689121,-0.003514650942344928,0.00977421492237134,-0.0017221215037371046,0.009022898146515853,-0.011455434084302829,0.00019041176088450227,0.001660165480924645,-0.0027849253948736014,-0.003999586486583939,0.0021357644656639567,-0.0008384776489140217
18,-0.0009151698629001176,-0.0005941259831078907,-0.0038207269342391756,-0.0015583308844069547,0.004346857279432882,-0.005161921575018273,0.004996826627041567,-0.0011713753850219803,-0.0014928355247752637,0.005684725114352667,-0.005014146908277182,-0.0011059922748706012,0.011130681382039395,-0.0033927508499610737,0.009957620180390134,-0.001288270895307469,0.009149790390830602,-0.01153366465418726,0.00016614433424955836,0.0015803613217129596,-0.002837174861617998,-0.003937356626702855,0.0020206899057578225,-0.0007838569411955932
19,-0.0012056365308229086,-0.0004283777570006756,-0.0030839294071476923,-0.001512099445590739,0.004164021645268206,-0.005169488480764063,0.0048212475212159964,-0.0016305615756421216,-0.0010937900371739528,0.005314665460533567,-0.0051086304724838535,-0.001407907852469102,0.011320083626292584,-0.0033517663379946465,0.009740730249359914,-0.002036307275671865,0.008838190363170531,-0.011278373181420479,0.0003933032565881288,0.0012189853878737643,-0.0023209294671705594,-0.004040649729859526,0.002168901934534168,-0.0006684729199228646
20,-0.0014102138842556021,-0.00033308263264936574,-0.0031541789885664627,-0.0018103997157947506,0.003969214463014856,-0.005243411941496826,0.004980638638787627,-0.0016739300981651814,-0.001169781589119361,0.005025763616068071,-0.0052882032974444,-0.0015394273885210566,0.011182061204708115,-0.003108968307820805,0.009789616157393446,-0.002616128717118752,0.008577376623345023,-0.011195592114008385,0.0005772309037536753,0.0013855666164212964,-0.0027708404497194827,-0.003972466508205452,0.0022498767931321403,-0.00036268053352604
